//Numpy array shape [144, 16]
//Min -0.509157955647
//Max 0.579072773457
//Number of zeros 0

#ifndef W10_H_
#define W10_H_

#ifndef __SYNTHESIS__
model_default_t w10[2304];
#else
model_default_t w10[2304] = {0.0911645368, 0.3360886872, -0.0931862146, -0.0188199002, -0.0487907901, -0.0853798464, 0.1333502531, 0.1176056340, -0.0492932498, 0.0977231413, 0.1264124811, 0.1817681640, 0.1701895595, -0.1308821291, -0.1178827733, 0.2562492490, -0.1669987142, -0.0809782594, 0.1866889000, 0.1564502418, -0.0343709812, 0.1225586981, -0.0264419131, -0.1258163303, -0.0319618508, -0.2851116657, 0.1704193801, -0.0965090245, -0.1570635736, -0.0090959379, 0.1879347265, 0.0759290531, -0.1643338352, 0.0230730046, -0.1303206086, -0.0811995938, 0.0623489097, 0.0768060982, 0.0059312317, 0.0354586765, 0.2020881474, -0.3750407398, -0.0495698564, -0.1178749353, -0.1225669682, 0.0174540356, -0.0606620274, -0.0763958022, -0.0877314284, 0.2525811493, 0.2447991222, -0.2338315099, 0.1049750671, -0.1657594293, 0.3027405441, 0.2036590129, 0.0083060991, 0.2697284222, 0.0655069873, 0.0552604571, 0.1142703369, -0.2309505939, -0.0556642711, -0.1627367288, 0.1748480052, 0.2612086236, 0.0514667183, 0.1451821029, 0.1355491132, -0.0618988909, 0.0912596285, -0.1658455878, 0.2489738613, -0.0258005168, 0.1460095495, 0.0380158201, 0.0604948364, 0.0767204463, 0.1029023081, 0.0269685108, 0.1004920751, -0.1880512536, -0.0998269171, 0.0516957529, 0.1197219193, -0.2165676504, -0.2364321947, -0.2416265905, 0.0446124747, 0.1039746478, -0.0022835559, 0.1653537899, -0.1220837906, 0.1307634711, 0.1540561914, -0.1055510417, -0.1110299304, 0.1905085444, 0.2165200710, 0.2091061771, 0.1452381313, -0.2936324775, -0.0547978282, 0.2190606147, -0.0993062556, 0.0771655813, -0.1445888877, 0.2280838788, 0.3823257983, 0.0818890110, -0.1506613344, -0.2715012133, -0.0169340670, -0.0131182075, -0.1429459900, 0.0617381483, -0.0258328579, -0.1668070257, 0.0221242551, -0.0298804995, 0.0326356366, -0.3511722982, -0.1660538465, 0.1787809432, 0.0333045237, 0.1825618893, 0.1742121428, -0.0661928877, 0.1620176882, -0.0863048956, 0.0244631264, 0.1907707602, 0.0302569177, -0.1865357906, 0.0515829362, -0.0328817852, -0.0669633523, 0.0213973019, -0.1229093298, 0.0774764717, 0.2047238201, 0.1939309686, -0.0027779853, 0.2270978242, 0.0907051340, -0.1007916331, -0.1387791485, 0.1149703413, 0.1316999495, -0.0429207422, -0.0445184112, 0.1475909948, -0.0966362730, -0.1677226573, 0.0736123323, -0.1017355919, -0.0541040264, 0.1188695505, -0.1277330816, 0.0304197725, -0.2062920928, -0.1520530581, 0.0369875804, 0.1267803162, 0.0764878169, 0.1260131150, 0.1668066084, -0.2048361748, -0.1841939688, -0.0370756239, -0.1430057287, -0.0253443029, -0.0002483639, -0.1193514839, 0.0852309838, 0.0930688903, -0.1721653193, 0.0543583818, 0.0640177950, 0.1085416153, 0.1038031355, 0.0144045977, 0.0438330583, 0.0019708949, -0.1432862282, -0.0188504159, -0.0737926513, -0.0474713482, 0.0665787086, -0.0201681573, -0.1452787817, -0.0198354200, 0.0845984742, 0.0126073761, -0.1650350392, -0.1912659705, 0.0604171418, 0.0411999412, -0.0162399728, -0.1345792115, 0.0907453895, -0.0019025945, -0.1138915792, 0.1339297444, -0.0569475591, 0.0317785479, 0.0379518680, 0.0768721104, 0.1006479785, -0.0638722703, 0.0236531086, 0.1508182436, -0.2070648819, -0.1117268130, -0.0154016763, 0.1474019438, -0.0156353768, -0.1447983086, -0.1124204844, -0.0396521091, -0.0770820677, -0.1670416743, -0.2059768885, 0.1119843274, 0.0618311577, -0.1729354411, -0.1876381189, -0.2250685096, -0.1432260871, -0.0907415599, -0.0122722806, 0.1873682588, -0.2274893671, -0.0790505037, -0.2188046277, 0.1626460701, 0.0443610214, 0.1910427958, -0.2101857215, 0.0149400895, -0.1471430659, -0.0235969927, 0.1330114156, 0.0975676998, 0.1464996934, 0.0418499261, -0.1097356901, 0.0707348213, 0.1864762902, -0.0464464091, -0.0025136252, 0.0336055532, -0.1700741649, -0.1750453264, -0.1953992248, 0.0115258433, -0.1001610011, 0.0621004067, -0.1684054583, -0.1799439490, -0.0974694565, 0.2256680578, 0.0005762653, -0.1527792811, -0.1680812240, 0.0046172193, -0.1359652281, 0.0494378507, -0.1217589304, 0.0825731829, 0.1080413312, 0.1409541070, -0.1313365251, -0.1613133103, -0.1065942943, 0.0782829076, 0.0078881234, 0.1264657974, 0.1456420124, 0.1924275160, -0.1677434146, -0.1026709825, -0.0203131940, 0.0647417158, -0.2104907036, -0.0167651456, -0.1795520186, 0.1272110641, 0.0364721045, -0.0906619430, 0.2574872077, -0.0119096255, 0.0912791565, -0.0088927327, -0.1062918305, -0.1194466054, 0.1087613255, 0.0935728848, 0.1118098795, 0.1649056226, -0.1822020113, -0.0733928680, -0.1483938545, 0.2868731916, 0.0806007907, -0.2612346411, 0.1512660980, 0.2366922349, 0.0706503615, 0.0847868621, -0.1767065823, 0.0016236937, -0.1884603649, 0.0662344694, -0.0015853047, 0.2019441128, -0.1295074224, 0.0976377651, -0.0749911666, 0.0407851599, 0.1992095262, 0.1809650064, 0.1814009547, -0.2140362710, -0.0801493004, 0.2693763375, 0.1845129132, -0.0815178230, 0.1372524947, 0.4486563504, 0.2171160877, 0.1063206345, 0.1531937271, 0.0681600273, 0.0197689179, -0.0525547266, 0.0586434379, 0.1429927349, -0.1474920213, -0.2795966268, -0.0555889681, -0.0172866918, 0.0510562919, -0.0006153347, 0.0894282758, 0.0113782976, 0.0879735947, -0.0316441245, 0.0693584979, 0.0739347115, 0.1380940378, 0.0516353175, -0.0530726984, 0.0879314095, 0.0048899460, -0.1615711451, 0.0686231032, 0.2156803161, -0.1717101634, -0.0290311687, -0.0642758012, -0.1154583395, 0.1549775898, 0.0207072552, -0.0722540319, 0.1729942411, 0.0531530939, -0.1068260074, 0.1948744059, -0.1434396058, -0.0641601160, -0.1310716122, -0.1082475558, 0.0205164142, -0.1715180874, -0.3697273433, -0.0079970146, -0.1321066320, 0.0846746564, -0.0127207628, 0.0085610440, -0.2295380831, 0.1028247178, -0.0725295395, 0.0100821974, 0.2133031934, 0.2411512882, 0.1809881926, -0.0944018289, -0.1970176548, 0.1183046922, -0.0828710273, 0.2288696170, 0.0014276487, -0.1267016828, -0.1128418222, 0.2307323515, 0.3060502410, 0.0631730929, -0.0257783122, -0.1425740421, 0.1958714873, 0.1265058219, 0.1696826518, -0.1533481926, -0.3546135128, 0.1747996956, -0.0945546776, -0.0248812996, -0.0191550422, -0.0323563442, -0.1727424562, 0.2478656173, -0.2163365781, 0.0723587498, 0.0982460305, -0.1348279715, 0.2163996845, 0.1006638855, -0.1530217081, 0.0893399790, 0.0053972234, 0.2514311075, 0.4607460499, 0.1925331801, -0.3552005589, 0.0515080355, 0.1021174267, 0.2111760229, -0.0929780528, -0.0327241309, -0.2681918442, -0.1293155253, 0.1634372324, -0.1560159326, -0.0738680363, 0.1508356929, -0.1392308623, 0.1130303070, 0.0167900361, -0.1574600190, 0.0428813733, -0.0010269266, -0.0893408880, -0.0426236615, 0.0495277271, -0.0955795422, -0.0226935185, -0.0135008581, 0.1183228567, 0.1152892709, -0.0969375446, -0.0793119445, -0.3064551950, -0.1111288518, 0.0144798933, -0.2660819292, 0.1691249758, 0.0014864231, -0.1608098447, 0.2498730123, 0.0485649072, 0.1478606910, -0.1601393372, 0.0782751366, 0.0258726235, 0.1275783926, 0.1748645008, 0.1916316301, -0.1972626895, 0.0334847197, -0.2268536538, 0.0259087626, -0.0005251456, 0.0774190873, 0.1203858703, -0.0287104137, -0.0581430718, 0.0712818056, 0.1834656596, 0.0216815602, 0.0373751149, 0.0598477125, 0.0774078742, -0.0015537612, -0.0453316644, -0.0477306657, 0.2244713306, 0.0631088763, -0.3404946923, 0.1636303812, 0.1150071397, -0.0306180678, 0.2104746401, -0.1980327070, 0.0308170840, 0.1539649516, -0.1864847094, 0.1839717627, -0.0230128951, -0.2005456984, -0.0083215358, -0.2287700027, 0.1839944571, -0.2018648237, -0.4182996154, 0.0137218200, 0.0883149058, 0.1125740036, -0.3082885444, 0.1522472799, -0.0385230780, 0.0961542204, 0.2473282963, 0.0375386626, 0.1573926061, -0.0187444817, -0.0690078586, 0.1474868059, 0.0879793018, -0.2082037479, -0.2773271203, -0.1132091582, 0.2155884504, 0.2000306398, -0.3773689568, 0.0394174755, 0.0812270865, 0.0403633788, -0.0593778379, -0.0237620715, 0.2145202756, -0.0067902124, -0.0295796096, -0.1110471338, -0.1294185221, 0.1425990015, -0.3532221615, -0.0770562440, -0.0852351114, 0.0072410353, 0.0329855755, -0.0311923753, 0.1576458514, -0.0798111632, -0.1329844892, -0.0347396322, 0.1707469970, 0.0850900337, 0.3379028738, 0.0818879157, -0.1084331349, 0.0572500862, 0.1327273995, 0.2867665589, 0.1436010152, -0.2527724206, 0.0896168277, 0.0343664922, -0.0566552728, -0.0258994009, -0.1628083885, -0.0829141960, 0.0001705106, -0.0027362644, 0.2438964993, 0.0210130308, -0.4498578906, -0.0711566880, 0.2980697751, -0.1468953788, -0.0034614317, 0.0655849054, -0.2745236754, -0.0418778323, -0.0374122262, -0.0802547783, -0.0669553727, 0.0467762984, 0.3148235679, 0.1767513305, 0.1173279732, -0.3318045139, -0.1337303817, 0.1304133832, 0.1093865782, 0.1226088628, 0.0544339418, 0.0331576690, 0.0022306337, 0.1699403971, -0.0364621319, 0.2932909429, -0.1379742026, -0.0144053428, -0.1025485247, 0.0026155347, 0.0204170067, -0.1439957321, 0.0125689581, -0.0171006583, -0.2234381884, 0.1244816110, 0.1414828449, -0.0741301477, 0.1436596215, 0.0847278908, -0.1359469295, 0.1464450806, 0.0875342488, 0.0089609576, 0.0619745106, 0.0738255456, 0.0634773374, 0.0646065921, -0.0434395149, 0.1002367139, 0.0326229073, 0.2459503114, 0.2632888258, 0.0558404848, -0.0491783731, -0.0691558272, -0.0619417094, 0.2480082661, -0.2347677499, -0.0867480859, -0.1075751930, 0.1120961457, 0.2426731288, -0.2899858654, -0.2800535560, 0.0483580828, -0.0961320400, 0.1460808367, -0.0253994074, -0.1276600510, 0.1051888838, 0.1783637553, 0.3303624988, 0.0071183802, -0.1221391112, 0.0853775740, -0.0962492451, -0.1346527934, 0.0650346726, -0.2200992703, 0.0204487462, 0.0134206386, -0.1074631810, 0.0762804002, -0.0536822267, 0.2018557340, 0.0702748522, -0.1006586626, -0.1027622372, -0.1478689611, 0.0678640306, 0.1144601628, 0.1328260005, -0.1190092340, 0.0895276740, 0.2987478375, -0.0867805183, 0.0447601750, -0.2779962122, 0.0877430215, 0.1707234383, -0.0627291352, -0.3606914282, -0.1100386530, 0.0937215611, 0.1075212955, 0.2021218985, 0.0489385054, -0.0638614744, 0.0235532895, -0.2167615891, 0.0047607580, 0.1428774446, -0.0007331126, -0.1067384407, -0.0059453705, -0.2282933295, -0.0057362197, 0.0278219972, 0.2239337415, 0.1382681578, -0.1235480234, 0.0928113014, -0.0013965419, 0.1279468685, 0.1917996556, -0.0219832156, 0.0783672035, 0.1069048718, -0.0128277792, -0.1989517212, 0.0911368430, -0.2072855681, 0.0826777369, 0.0623052679, -0.1309145242, -0.0230892096, -0.0353987180, 0.1519248188, 0.1386671662, 0.0710234940, -0.0864339322, 0.0678880960, 0.1707667261, 0.3547189236, 0.0134661430, -0.0649941340, -0.0401916727, -0.1774582267, 0.0438144170, 0.1938431561, 0.2795190513, -0.0293685254, -0.0930003673, 0.3471865356, -0.1458710730, -0.2113655508, -0.1114382744, -0.3167659938, 0.0208879858, 0.2192277312, 0.2248476893, 0.0354707688, 0.0116813146, 0.0973480567, 0.0545438565, -0.2042323798, -0.0967404321, -0.1126000285, -0.0026261020, 0.3182156980, -0.1785941720, -0.1720045507, -0.0454479046, -0.1113089621, -0.1363770366, 0.0242519211, 0.0357564986, -0.3672831059, -0.0325075574, 0.0153808026, -0.0510939956, 0.0290776398, -0.1078236401, -0.0221440308, 0.0026519988, 0.0238438770, -0.2107399553, 0.0939194784, 0.2125459015, 0.3468129635, -0.1243925318, -0.1773177981, 0.1768478155, -0.2905880511, -0.1983008683, 0.0163965877, 0.0520227477, -0.0463227332, -0.0870907828, -0.0919647515, -0.1071213558, 0.1730098128, 0.1998354197, 0.2329408526, -0.0911473557, 0.0803287253, 0.3964479566, 0.0238617919, -0.0338542312, 0.0952557698, -0.0585228242, -0.1028462276, 0.1704432368, -0.0739868060, 0.1485675871, 0.3107813001, 0.1400370300, 0.0419180319, 0.1722271591, 0.2613560259, -0.1177599356, 0.0765006691, -0.2578397989, 0.0949314833, 0.0706423968, -0.4822047949, 0.0900775641, 0.0379329734, 0.0007551688, -0.0654666275, -0.0409903601, -0.0047438322, 0.0225083046, -0.0469336621, 0.0614220053, 0.1644314975, -0.2262624353, -0.0283983983, -0.1203414351, 0.1236267164, -0.1038893238, 0.1892572939, -0.0400414281, 0.0675327778, 0.0972035229, -0.0242714956, -0.0356617682, 0.1549938321, 0.0595493242, 0.2694820464, 0.2081497759, 0.2289046943, -0.0469150916, -0.1980098337, 0.2008116245, 0.2097143978, -0.2604274452, -0.1935836971, 0.1843542457, -0.1910285205, 0.1585628986, 0.2245082557, 0.0186936669, -0.1899824142, 0.0063044815, 0.0024690044, 0.1529301405, 0.1701219976, -0.0301327631, -0.1915165931, 0.0910883844, 0.0186208729, -0.0684210509, -0.2765559852, -0.0658313856, -0.0492101312, 0.0357085578, 0.1160328686, 0.0083055869, -0.0755892918, -0.0985593945, 0.0104619544, -0.0915769711, 0.1395032555, 0.1456553340, -0.1219495162, 0.2298423052, -0.2438855320, -0.0044267685, 0.0300907195, 0.1724286824, -0.0923753381, 0.0215367060, -0.0169594940, 0.0580783188, 0.1216699556, 0.1158851162, 0.0656523779, -0.0236578528, 0.2186033875, -0.0204321351, 0.3223545849, 0.1137513220, 0.0375556760, -0.2002791762, 0.2163699567, 0.1269153208, -0.1358966678, -0.1415102482, 0.0145075060, 0.1685277969, 0.2161668390, 0.0427475087, -0.0423778519, -0.1985000223, 0.2084859014, -0.1337013096, -0.1456351131, 0.0247978754, 0.0272234138, -0.0854337364, 0.0659979582, -0.0828479826, 0.1182430312, 0.2367655486, -0.0936026201, -0.1735554636, 0.1178687215, 0.0271354821, -0.0623225868, -0.0238467474, -0.1276706010, -0.1705865264, 0.0678482950, 0.0491369851, 0.1572198868, -0.0485014506, -0.0954760909, 0.1948938221, 0.0428273156, 0.0710439086, 0.1767631620, 0.1919582039, -0.1070089862, 0.1996545494, -0.0736713484, 0.1195101589, 0.1271324754, 0.0971254930, 0.1670031846, 0.1028375402, 0.1709403843, -0.1210719272, 0.1593670696, 0.1441632658, 0.0636414438, -0.2132253796, -0.1313694417, 0.1609694213, -0.0027957959, 0.0244210903, -0.0409368463, 0.2416138798, -0.1728962213, -0.1733760089, -0.0968729332, -0.0192912519, 0.0607951842, 0.1851542741, -0.0749630183, -0.0024838415, 0.0870846510, 0.1516516060, 0.1428904384, 0.1344725788, -0.0350052938, 0.0166686401, 0.0354480222, 0.1133794039, -0.1417030841, 0.1913442314, 0.1672436595, 0.1920700222, 0.1750886589, 0.0494045876, -0.1427014172, -0.0439145043, -0.0778181106, 0.0212839879, 0.0620718412, 0.0371376462, -0.1697419286, 0.2004072666, 0.2174354643, 0.0540548488, -0.0806778818, 0.1575949341, -0.0868482217, -0.0073286030, 0.1264040172, -0.3762263060, 0.2567731440, -0.0120585272, 0.0288606193, 0.0104041025, -0.2078599930, -0.2332772464, 0.1181792319, -0.1346749514, 0.2397604138, -0.1157256514, 0.0582042262, 0.0581570417, 0.0321307816, 0.1841492206, 0.2036631703, 0.1169002876, 0.1176728085, -0.1641560346, 0.1709432751, -0.0243563056, 0.0605844855, -0.1413075924, 0.1869502515, 0.0000987424, 0.0213445108, 0.1729137003, 0.1004981622, 0.0029593343, -0.3214168847, 0.0175022781, -0.1867566556, -0.0340672843, 0.1877296418, -0.0390351228, 0.2473485470, -0.0363353007, -0.1422910243, -0.1859095246, 0.0378715247, -0.0523822755, 0.1305413842, -0.0975844115, 0.1516695768, 0.2102654129, -0.1196896285, 0.1138920635, -0.0312957540, -0.0857393369, -0.0653265938, -0.0363438055, -0.1585098654, 0.0970940366, -0.0316288434, 0.0329297669, -0.2479707152, 0.0567611717, 0.0831893086, 0.1674370766, -0.0233315378, 0.3204968572, 0.1215212420, 0.1178409234, -0.1804610342, -0.0837369934, -0.3363057971, -0.0326623060, -0.2525762320, 0.2438888997, 0.1932824105, 0.2181110531, -0.0640292093, 0.1958787441, -0.0821380094, 0.2014987618, -0.0064073326, -0.0270278025, -0.2057137787, -0.1501204967, -0.1668287963, 0.0584445372, -0.1490472108, 0.1504519880, -0.1361546963, -0.0065666693, 0.0926199406, 0.1191069111, 0.0589494891, -0.1210570708, 0.0781033784, -0.1106795296, 0.2410857230, -0.1844456643, -0.0070548882, -0.0751949251, 0.2059032768, 0.2172371000, -0.1833244860, -0.1054583713, 0.0190732982, -0.0767564476, 0.1863098741, 0.0949924365, -0.1359808594, -0.0693836287, -0.0849658921, 0.1518934071, -0.0591066070, -0.1311216354, -0.0891394243, 0.2664174139, -0.0681404024, -0.0578529164, 0.1292349696, -0.1289554536, -0.2090299428, -0.0646645874, -0.1308331341, 0.0183059629, 0.2094026953, 0.0820487514, 0.0000217921, -0.1072071344, -0.1124780923, -0.1903744787, 0.1775331795, 0.0910292566, 0.0978606120, 0.1089419797, 0.2725763321, -0.2513556480, -0.2317162007, 0.1216847748, -0.0817243084, -0.0521512888, 0.2210341245, -0.2352800667, -0.3024517298, -0.0457597077, 0.1633207202, -0.0659888238, -0.2095804363, -0.1596269161, -0.0223502554, 0.1963102669, -0.1154274866, 0.1837894320, 0.1422365159, 0.0777109936, -0.0160143748, 0.0955086276, 0.0626429617, 0.1361838877, -0.1244006604, -0.0270018000, 0.2120005637, 0.1131549254, 0.0005969532, 0.1016985327, -0.2738290429, -0.0030968823, 0.1704899371, 0.0497910529, -0.0572628863, -0.2000077814, 0.1736314148, 0.3098231554, 0.0089185154, 0.0343872495, 0.0092843333, -0.1108319387, 0.0226188600, 0.1675682664, 0.3250038326, -0.0878448412, -0.2515221238, 0.2489483058, 0.2229273617, -0.0553391874, -0.0060808733, 0.3082688749, -0.0029626191, 0.3416535258, 0.1663340032, 0.2396084219, 0.1304214150, 0.0352317095, 0.0043551335, 0.0383784249, 0.2344377786, -0.1544825733, -0.0438831486, 0.1654620171, 0.0263550933, -0.0999149233, 0.0842059404, -0.1896535158, -0.0151376380, 0.3367752433, 0.0591097102, 0.2959009111, 0.1533806473, 0.0787851810, 0.0375980437, -0.0284961946, 0.0788446665, -0.2226992548, 0.0973068550, -0.0489516929, 0.1654426754, 0.0371615142, 0.1425276995, -0.1598299146, -0.0532941446, -0.1837676913, 0.1437472999, -0.0032274134, 0.4379103780, 0.2312217057, -0.0586125329, 0.1821445823, 0.0758205056, 0.1651527435, 0.2704848647, -0.0379949547, 0.3122971058, -0.2780492008, 0.2012832761, 0.0246161912, 0.0411316343, -0.0143484166, -0.0090532489, -0.0194820613, -0.2398958057, 0.2145376503, 0.2795000672, 0.1997219771, 0.0737410858, 0.0181366056, 0.1931444705, -0.2515106499, -0.1578468233, 0.1547989994, -0.0405077636, 0.1837889105, 0.0646016151, 0.1772308797, -0.0512511246, 0.1009832025, -0.0035087308, 0.1501197517, 0.0275505297, -0.0409676917, 0.1216459274, 0.0823019519, 0.0086710667, -0.1327912360, 0.1481801420, 0.3458819687, 0.1446251124, 0.0823535621, 0.2593125105, -0.1497074515, -0.1296244860, -0.0110521279, 0.0640714914, 0.2178649008, 0.0932262391, 0.3012616038, -0.0335699171, 0.0758352652, 0.0641251281, -0.0974833369, 0.0007501494, 0.0285854023, 0.2335050553, 0.1489654928, -0.0261348020, 0.0605627336, 0.0324360244, 0.0682693347, -0.1864218414, -0.0453613885, 0.1909796298, -0.0488423221, 0.2529160380, 0.0292415712, 0.1043065116, -0.0095963469, 0.1771350652, 0.3137291670, 0.2619067132, -0.1491961628, 0.0557397306, 0.3365628719, 0.3519401550, 0.0912771225, 0.0311759338, 0.1285349876, 0.0786559582, -0.2190116197, 0.5506425500, -0.2338014692, 0.3685004115, -0.1138199270, 0.5790727735, 0.0092318114, 0.1702481508, 0.0664137900, -0.0227785073, 0.1691173613, 0.1962799132, 0.1693435162, 0.1664263159, 0.2255114466, -0.2655838132, 0.0379678272, 0.3592440188, -0.0753096640, 0.1188739464, 0.0373514444, 0.2424614877, 0.2685768604, -0.2522336841, -0.2557655573, -0.0381246135, -0.1568804979, -0.1378284991, 0.1154491454, -0.2911208868, -0.1557396948, 0.0973188579, 0.1827544421, 0.3415476680, -0.2062276602, 0.0707215518, -0.0388652347, 0.1207655445, 0.1172428280, -0.1370359212, -0.0822516754, 0.1899589300, 0.1725437045, -0.0965663195, 0.0913386419, -0.2566167712, 0.0682662427, -0.1085959300, -0.0451486185, -0.0650290176, 0.1084035859, -0.2383052707, -0.0333360322, 0.2519789040, 0.3890370131, 0.0904069468, 0.2011802793, 0.0456242673, 0.1386592835, 0.0435800999, 0.2467013896, 0.0956636369, 0.0324741304, -0.1174813509, 0.2470620126, 0.1041848958, 0.1127316207, -0.3809353113, 0.2622825801, 0.1426208764, 0.0685461238, 0.2179888934, 0.0738613158, 0.0058762566, 0.0985035226, -0.0117757153, -0.1407456994, -0.0985096171, -0.1680523902, 0.0082781445, 0.1795087457, 0.2489706725, -0.0874485299, 0.2135422677, 0.0476502664, 0.0468156822, -0.2181932777, 0.0840456113, -0.0804778486, -0.0294966232, 0.2129562050, -0.0999375358, 0.1356545091, -0.0931259170, -0.1190439984, -0.2258938849, -0.0340882428, -0.0377153419, -0.1527644694, 0.0401327237, -0.3111880124, -0.0008912606, 0.1034827083, -0.1622232199, -0.0538634621, 0.0218809433, -0.0998940691, 0.0424632318, 0.2585538030, 0.0725722834, 0.0159091894, -0.1311848015, -0.1776654720, -0.1033673957, 0.0537349917, 0.0088686803, -0.0506465025, -0.1470378637, 0.3895412087, 0.1574540883, 0.1302772164, -0.1308829039, -0.0338800624, 0.0830742791, -0.1352709085, 0.0256122593, 0.0971837938, -0.1023832187, 0.0367221348, -0.0150019582, -0.1950816512, 0.0624435917, 0.0326657519, -0.1756176353, -0.2375993282, 0.1018640101, 0.1674868464, 0.0752373114, 0.0261431411, -0.0596968569, 0.1513548791, 0.2606066465, -0.0777322650, 0.0851781368, 0.1341990978, -0.1525020897, 0.1039435118, 0.0562872030, -0.0803761780, -0.5091579556, 0.0219241697, -0.0375202782, 0.1487588435, 0.0467508547, 0.0217229687, -0.0788464472, -0.1336098611, -0.0691331923, 0.0588204712, 0.1621887386, 0.0105665857, 0.0914998204, -0.1158799827, 0.2708358765, 0.0279182810, -0.1309495568, -0.0560505837, -0.0105831269, 0.2061007619, -0.1964200139, 0.1067315862, 0.1455729604, 0.1211733669, -0.0288634114, 0.1538739353, 0.2584962249, -0.0515863933, 0.0922998488, -0.1687259227, -0.0404105932, 0.1569774300, -0.2306453139, -0.1203477606, -0.1591387838, -0.1249343008, 0.2903055251, 0.1248563081, 0.0084220506, 0.0743964538, -0.0622561984, 0.2086818516, 0.1372975260, 0.0129140904, -0.0357768424, -0.1361333281, -0.0057942928, -0.1748694181, 0.0503731407, -0.1493906379, -0.4168754518, -0.0793440640, 0.1974707395, 0.2671697736, 0.1687698662, 0.1210578978, 0.1524443179, 0.0965788513, 0.3763686717, -0.1755569428, -0.1070461124, -0.1052080616, 0.0219245441, -0.1350831836, -0.1511430889, 0.0331028216, -0.3938896656, -0.2446087003, 0.2032233477, 0.1251700521, 0.1390261501, -0.0445225909, -0.0426168516, -0.1265817881, -0.0366466828, 0.2378643304, 0.2846659720, 0.0874228105, -0.0671825260, 0.2179747224, 0.2235111296, -0.0190490633, 0.1312808990, 0.0091074333, -0.1786422879, 0.2886945605, 0.2528415918, -0.0895794854, -0.2123731971, 0.1501756310, 0.1953459382, 0.0378485955, 0.1203662530, 0.1149973199, -0.1971398443, 0.1188383624, 0.3250880241, 0.0230475236, -0.0681699961, -0.0485331267, 0.1551175267, -0.1006789133, 0.1755029410, 0.1691841334, 0.0689339787, -0.0991475582, -0.0676958188, 0.0198233537, 0.1164750159, -0.1255634427, 0.0473247021, 0.0094473502, 0.0374260284, -0.0189539436, 0.1666859835, 0.1436606646, 0.1392960101, 0.1056624129, -0.0178974401, 0.1984508038, 0.2907178700, -0.1033227295, -0.2067820579, -0.0325028114, -0.2345176786, 0.0060479217, -0.1057058647, 0.0941617936, 0.0566165857, 0.0360057466, -0.1351848990, 0.0884135589, 0.0573002212, 0.1115540266, 0.0927272588, -0.0605986305, 0.2131331712, -0.1802275777, -0.0101005966, 0.3034457266, -0.1113448068, 0.2834393680, -0.0919960216, 0.0920882076, 0.1157898232, 0.2214675099, -0.1495193243, 0.1633470207, 0.0137745859, -0.1286730766, -0.0195098724, 0.0773762017, 0.0872265249, -0.1759697795, 0.2098065615, 0.0801098868, 0.0335745066, 0.0966370702, -0.1427464932, 0.3725642562, 0.0184906125, -0.0733922496, 0.2724743187, 0.0440921113, 0.0793260485, -0.0804208964, 0.1968347430, -0.1121022329, 0.1488148868, -0.0746760666, -0.1149476990, 0.0489022397, -0.0692394152, 0.2036655992, -0.1556678712, 0.2717843056, 0.3154002726, 0.1966429055, 0.2365370393, 0.0443846732, -0.1671786010, -0.1344847828, -0.0769889131, 0.0004687996, 0.1892664284, 0.1139786169, 0.1548181325, 0.2013968080, 0.1990305036, 0.0995477587, 0.1328462958, 0.1313835979, -0.1810068190, 0.1882118583, 0.4224179983, 0.0277519971, -0.1533141583, -0.0687794536, 0.3261149824, -0.3034090698, 0.0665488541, -0.1746110469, 0.1623218209, -0.2004125714, -0.2321926057, 0.0604421496, 0.1609264612, 0.0092848884, -0.2640774250, 0.1199683696, 0.1210687011, 0.1442779005, -0.0942565948, -0.0015045035, 0.0902685374, 0.2338454425, 0.0092843128, -0.0176174939, -0.0480102375, 0.2147526443, 0.2723328769, 0.1829848737, -0.0345566310, 0.1747925133, 0.1993073821, 0.2500820458, 0.1272481233, -0.0418599918, -0.0314035527, 0.3104318380, 0.0607836023, -0.0878343284, 0.0688685477, -0.0371375717, -0.2408564538, 0.0861281604, 0.2025635839, 0.3027265966, -0.0848907977, 0.0727873966, -0.1030974612, -0.2102304697, -0.0970610306, -0.0467432439, -0.0241968855, -0.0101633323, 0.0871579722, -0.3095130026, -0.0777156502, -0.0499764904, 0.0194892939, -0.0669307411, -0.1250025332, 0.0024785588, 0.2356916666, 0.3223907053, 0.1192703322, -0.2097559124, -0.1068642661, -0.1934299022, 0.0314702243, 0.0981115922, -0.0647955462, 0.2157710344, 0.2733150125, 0.2279604226, -0.0294980183, 0.1345397979, -0.0564733520, -0.1329235435, 0.2380537838, 0.0628941506, -0.2165183127, 0.1050964966, -0.0481780097, 0.1522845179, 0.0623782687, -0.0150379483, 0.0485673770, 0.0233097188, 0.2928496301, -0.1156996563, -0.2090056539, 0.1793457866, 0.0542146116, 0.2253375351, 0.0106745325, 0.1238144487, 0.2704422474, 0.0441740900, -0.1521662772, -0.0387983955, 0.1639778316, 0.2069607973, 0.1196999848, -0.0559231266, -0.0612814687, -0.0694438517, -0.0333116576, 0.0505197197, -0.1447580010, 0.0628326386, 0.1047907770, 0.2371230125, -0.0608058237, -0.1054434404, -0.0204203948, 0.0183408540, 0.0329396836, 0.2245589346, 0.0298793204, -0.1418250650, -0.1153507829, 0.1494277120, -0.0273415316, -0.0486485399, 0.0673974827, -0.1408127844, 0.0038132006, 0.0171063468, -0.0260148607, 0.0852223188, 0.0412101746, 0.1037252471, -0.2872717977, 0.1855031848, 0.0216294043, -0.1363650560, 0.1251059324, 0.0494146645, -0.1929996610, 0.1328539997, -0.1366108060, 0.1097512618, 0.2607653439, 0.1027959064, -0.0199768208, 0.2073685527, 0.4878664911, -0.0267980136, 0.1020080298, 0.0102704521, 0.0260759518, 0.1537074000, 0.0111169023, 0.0312715098, 0.0926246941, -0.0328410752, 0.1317790151, 0.2598723471, 0.0674583465, -0.1015470996, 0.1237150207, 0.2463762015, 0.2423505336, -0.1347785890, -0.0678686574, -0.1234060675, -0.1127220839, -0.0412957817, 0.1555311531, -0.1795816272, 0.0373632684, 0.0012466731, 0.1867111921, 0.0467792228, 0.1981483698, 0.0746706277, 0.1039344668, -0.1668574810, 0.1227730662, 0.0315371752, -0.1672832072, -0.0837868229, 0.0149844307, 0.0216212273, 0.0185557865, 0.1994139254, -0.0685058683, 0.2106187046, -0.2454900891, 0.0688985661, 0.1273483038, -0.1271176487, 0.1097882763, 0.1049190387, -0.1258013099, 0.1271505952, -0.0751959160, -0.1903216392, -0.1650739610, -0.1483304799, 0.1890215278, 0.2029766142, -0.0904006734, -0.0541735888, 0.0296035316, -0.0400203057, -0.1217137575, -0.0231318828, -0.0866466835, -0.0327787958, -0.1267231703, 0.1954121441, 0.0914132148, 0.1954524517, 0.1021596044, -0.1595341414, 0.1072920561, 0.0040948144, 0.1095059589, -0.1255752444, -0.2454891801, 0.1263255775, -0.0609369799, 0.2213827670, -0.1172399521, 0.0341858119, 0.1169281527, 0.2009328753, -0.0636732727, 0.1362876147, -0.0064562857, -0.0308179501, -0.1103193536, -0.1952838302, -0.1497062892, 0.1000672802, 0.0233620647, 0.1108350158, -0.2556478381, -0.0760265663, -0.1025616452, 0.1674454659, -0.1487268955, 0.1630932689, -0.1115672514, 0.1848246157, -0.1245364323, 0.2907301188, 0.0509242937, -0.1673352122, 0.2891964912, 0.1649883091, 0.2301467508, -0.3432498872, -0.2248041183, 0.1917259842, 0.1704557240, -0.2344474941, 0.1371535510, -0.0525314175, -0.1450466514, 0.1009521782, 0.1094673723, 0.1499935687, 0.0406604633, -0.0099236108, -0.1044570804, 0.1291373521, 0.0952005684, -0.0488639064, 0.1540318578, -0.1195631400, -0.1232856512, 0.0271823518, 0.1036109254, -0.0891133100, 0.3099149764, 0.1803250164, 0.0064993524, 0.0348098800, 0.0051384540, -0.1487896144, -0.0216806140, 0.0342165604, 0.2103330195, 0.0234319083, -0.1491591036, -0.0848365650, -0.2579714656, -0.1053918675, -0.1561795473, -0.0173090789, -0.0009248684, 0.2149117589, -0.1277086884, 0.1513658464, -0.1604299843, 0.0050122510, -0.1488910913, -0.0324108452, -0.2910824120, 0.0705225170, -0.1527857184, -0.1499996483, -0.0948728994, 0.1958357543, -0.2596701980, -0.1223059520, 0.1648418903, -0.0522969104, -0.0646202415, 0.1387446970, -0.0427216887, -0.1234274581, -0.0296924002, 0.2308032066, 0.0850887671, -0.3063544929, 0.0001835528, 0.1726007909, -0.0947823673, 0.0758069009, 0.0057661962, -0.0107088741, 0.1707023382, 0.0285223462, -0.1359019130, -0.0122674610, -0.2517081797, 0.2462005019, 0.1979452372, -0.0429272354, 0.0129732070, -0.0584384315, 0.2408431321, 0.1072380543, -0.0153726349, 0.1018411517, 0.0034333796, 0.1733939946, 0.1909778267, 0.2141755074, 0.0225096792, -0.0504705906, -0.1524297893, 0.0243738145, -0.0612051152, 0.0545633473, 0.1465426087, -0.0009842466, 0.1142336428, -0.2304212749, 0.0538441949, -0.1728096455, -0.1111462489, 0.1849371344, 0.1942190826, 0.1390190125, 0.1689374298, 0.2367555499, -0.2098621875, -0.2683940828, 0.1339443475, -0.0592937805, 0.0889436603, -0.0780211389, -0.1563093364, -0.1390205473, 0.0179454964, 0.0580475852, 0.0365225449, -0.1521013826, 0.1741693765, -0.0577293113, -0.0390719473, -0.0786908939, -0.0683411434, 0.0959279686, 0.1141551659, -0.1044115052, 0.3657661080, 0.1494050622, 0.3282560706, -0.1879108399, -0.3501146138, 0.1304099113, 0.2587175071, -0.1416111141, 0.2153163850, 0.0693233013, -0.1098645702, 0.2180223763, 0.0048193629, 0.2165702581, -0.0283904374, 0.0308669321, -0.2272613049, -0.1664931774, 0.1024674475, -0.2041331679, 0.3727557063, -0.1070852131, -0.0907969251, -0.0922415927, 0.1760528982, -0.0540784262, 0.2338250577, -0.0287318174, 0.1055043414, -0.1821421236, -0.1350344270, -0.1703073084, 0.0191938821, 0.1017661989, -0.1250108778, -0.2033961713, -0.0317797139, -0.0174311418, -0.1733240038, -0.1222529560, -0.1956425458, 0.0818418339, -0.1619920135, -0.2116327882, 0.0761803016, 0.1456018686, -0.0027941135, -0.1137290895, -0.0468391329, 0.0397207253, -0.1292379051, 0.0714057609, 0.0788394734, -0.2255080938, 0.0544474050, -0.0908468291, -0.0834958926, -0.1608109921, 0.1531716436, -0.0628376827, 0.0056480607, 0.1117901281, 0.0301050153, -0.0090113040, 0.0584508069, -0.0443534404, -0.0548243485, 0.0773996860, -0.1725184023, -0.1190641895, -0.1283742189, 0.1044009775, -0.1042844951, 0.0220942833, -0.1740116477, -0.1187477559, -0.0074547413, -0.0699587911, -0.1179524809, -0.1857867390, -0.1707116961, -0.0034543774, 0.0536889322, -0.1034847349, -0.1610074341, 0.1197874844, -0.2087841928, -0.1324205846, 0.1699437499, 0.0172736626, -0.0891123116, -0.1621446609, -0.1261208653, -0.0287717767, -0.2080613226, 0.0486794338, 0.0036023874, -0.0033932875, -0.0108375279, -0.1056923345, 0.0913090780, -0.1092442721, 0.0767519102, 0.0015910600, 0.1000715047, -0.1061933488, -0.0378336459, -0.1246215701, 0.0744872093, 0.0476544984, -0.1220783666, 0.1027203500, 0.1328136623, -0.1740870476, 0.1805345118, -0.0414317586, 0.1683623791, -0.1914419532, -0.1249576434, 0.0120610297, -0.1768615246, -0.0657911152, 0.0275317710, 0.1165537909, -0.1698314846, 0.0800631046, -0.1489822865, 0.0415073112, -0.1080850288, -0.1624837369, -0.0767134130, -0.1890196055, -0.1597982049, -0.1327232271, -0.0986424685, 0.0086097363, 0.1400507838, 0.1410883218, 0.1079310030, -0.1553195268, 0.1630497724, -0.1167516187, 0.1102175117, -0.0083641475, 0.1542112082, 0.1310214549, -0.0469082929, 0.1072296202, -0.2073092759, -0.2436065525, -0.0091877701, -0.0343775935, -0.1313551962, -0.2008639425, -0.0949540138, -0.1208518073, -0.1048901007, -0.0253923126, 0.0341327079, -0.0222563371, -0.0250355173, -0.1199063137, -0.1381893158, -0.0319328606, -0.0993219689, -0.2024246901, -0.1147594005, 0.0631982088, -0.0235765018, 0.0950680226, -0.0445431881, -0.2036089450, 0.0034733196, -0.0180705134, -0.0847227126, -0.1399030089, -0.1320726275, 0.1535832882, 0.0429326482, 0.1039889976, 0.0518991500, 0.1670709103, -0.0257939789, 0.0584357083, -0.0260748565, -0.1632544994, -0.0519541614, 0.0740331188, 0.1819172055, -0.1513613462, 0.0618343763, 0.0259624012, -0.1091804728, 0.1063670143, 0.1232363805, -0.0443219058, 0.0980138555, 0.1276456118, -0.1526709795, 0.1394390315, -0.0090653868, -0.0515694283, -0.1168622300, 0.2319415957, -0.1099562421, 0.0744510144, 0.0868153125, 0.0329017304, 0.1478776783, 0.0533544123, -0.3339139819, -0.1522449553, 0.3295045197, -0.0675825849, 0.1366879493, 0.1274756342, -0.1406550705, 0.2504772842, -0.1545924395, -0.1686270386, 0.1422450095, 0.1544695646, 0.1113956720, 0.0403765291, -0.0174113158, -0.1469579190, -0.0177332703, -0.1508723348, -0.1500692815, 0.1140737012, 0.1301139593, 0.0098557835, 0.1964584589, 0.1226195395, -0.2316021025, 0.2165646702, 0.2330067903, 0.2035198510, -0.0070532528, 0.1874050051, -0.1610453725, -0.2008598447, -0.0976201743, 0.0372440629, -0.1639681756, 0.0771151111, 0.2435235530, 0.0194468945, 0.0025324889, 0.1704367846, 0.0684565380, 0.2002770603, 0.2620712817, -0.0498263501, 0.1200549379, 0.1032564640, -0.2135165036, 0.2015036494, 0.0608674474, 0.0967578664, 0.0147088030, 0.0033703477, 0.0427426323, -0.1027952880, -0.1792634130, 0.1210850552, 0.1006802320, 0.1261246949, 0.1979319900, 0.0406972207, -0.0444943458, 0.0953593925, 0.0130372113, 0.2231335789, 0.1807485819, -0.1327051818, 0.1488446295, -0.0607969388, 0.0290783085, -0.0744781420, -0.1367259920, -0.2417366952, 0.1418881714, -0.0245142151, 0.0132834651, 0.1082213223, 0.0035971513, 0.1206859946, 0.0034529634, -0.0846835226, 0.0704310238, 0.1345633268, 0.1143445745, -0.0777916759, -0.0001572942, -0.1167560369, 0.0468648374, 0.0169721097, 0.1828942895, -0.2599847317, 0.1604622602, -0.0053525539, -0.1607519984, 0.1215510815, 0.0163362566, 0.2545067966, 0.1037892401, -0.0783014745, -0.0774813220, 0.0194801502, 0.1566902995, 0.0715017319, 0.0401990712, 0.1386094093, -0.1042959765};
#endif

#endif
