//Numpy array shape [3, 3, 8, 16]
//Min -0.594894468784
//Max 0.551086485386
//Number of zeros 0

#ifndef W8_H_
#define W8_H_

#ifndef __SYNTHESIS__
model_default_t w8[1152];
#else
model_default_t w8[1152] = {0.1285279393, 0.2624734044, 0.2209447473, 0.1194702834, -0.1768322885, -0.3395008743, -0.1207083985, -0.1318931878, -0.1836061925, -0.1919889003, -0.1059558168, 0.0644504353, 0.0551698767, 0.2375332862, -0.2942042947, -0.0266282558, 0.2748214602, -0.2101912051, 0.0718445629, 0.1850637197, 0.1249917373, 0.0527206734, -0.0722169206, 0.0800107941, -0.1277060062, 0.0271723866, -0.1412300915, -0.0513962880, -0.0168353450, 0.0033508323, 0.1151320562, 0.2248119116, -0.0589493252, 0.2749364078, 0.0128215775, -0.2793444693, 0.0733044446, 0.1220279858, 0.1704518199, -0.1350315511, -0.0188971143, 0.1737541109, 0.0562490001, -0.0934034660, -0.0010243832, 0.0205019768, -0.3521612883, -0.3020722568, 0.0670539588, 0.0666006878, 0.3534121513, 0.1394989938, 0.2249332219, 0.2499504238, 0.0393439680, -0.0943971351, -0.1416161209, -0.1012545750, 0.0733031258, 0.0831046849, -0.1523468047, 0.2342092097, -0.1093600020, -0.4125592113, 0.2331806421, 0.5510864854, -0.0977972150, 0.0498852469, 0.1108623445, -0.0363312140, -0.1146071628, -0.0404462330, -0.2672555149, 0.0143836532, -0.1809991449, -0.3482190669, -0.4912000895, 0.0002259925, -0.1352273822, 0.0281502083, 0.0983658656, -0.0021075334, 0.1594746560, 0.0230105035, -0.1702798605, -0.0101640234, -0.2167150378, -0.3941498101, -0.4241766632, -0.1326905340, -0.2108213156, -0.0592836998, -0.1422825903, -0.0903408900, 0.1851978749, -0.0634466708, 0.1036327481, 0.3038051128, -0.0571297370, -0.1903274059, -0.1465940177, -0.1447791755, -0.2145666480, -0.0438937023, 0.0159393959, -0.2250058800, -0.2332072705, 0.2083850205, -0.1003576294, 0.1089369357, -0.1233679354, 0.2726326883, 0.1127614677, -0.0961800590, 0.2027333826, 0.2594105601, -0.2227617055, -0.0276682563, 0.1727134585, 0.3921065629, 0.0626217499, 0.2470747530, 0.2314837426, 0.2820254564, -0.0539735444, -0.3678183854, -0.1732307673, -0.0598852001, -0.0281062648, 0.1495817155, 0.1929323375, -0.0171992872, 0.2096331418, -0.1086921766, 0.0378589258, -0.0465170182, -0.0677767396, 0.0927741304, -0.2757360637, 0.1235868856, -0.1101960242, 0.3184444904, 0.1353194565, 0.1031173691, 0.2689950764, 0.0995714739, -0.1177871376, 0.0670216158, -0.1155087650, 0.0369523503, -0.3608594835, -0.0329068191, -0.0285574943, -0.0513965338, -0.1538358182, -0.1087679863, 0.2160673738, -0.0598768070, -0.1516189277, -0.0968568847, 0.1485638320, -0.0449365117, 0.0175826903, 0.1574231982, -0.0518995263, 0.0036052996, 0.1678542346, 0.2527964711, -0.2228541374, -0.0158984736, -0.0412449799, 0.1852038205, 0.0132899852, -0.0900578499, 0.2342922688, -0.1127812341, -0.1906072497, 0.0081945742, -0.1261854172, -0.3392077684, 0.0339977704, 0.1447283924, -0.0727450401, 0.1740766466, -0.0988694429, 0.1153136045, 0.1447297633, -0.0496786237, 0.0358937643, -0.2879833579, 0.0160439964, -0.2052791268, -0.0936611369, 0.1663425118, -0.1116623431, 0.1071356609, 0.0088778725, -0.0263273846, -0.1287962496, 0.1601868421, -0.0258043148, -0.0064030131, 0.1570644230, 0.0090784598, 0.0584946647, 0.0009008581, -0.2290722430, -0.2176146358, -0.2102255225, 0.0020954891, -0.2102177739, -0.0829141214, -0.2203927189, 0.1064055562, 0.0224999953, 0.1597546786, 0.1198995486, 0.1455142200, 0.0954071283, 0.1269114614, 0.3640757501, -0.0072058151, 0.2578322887, -0.0054005454, 0.0112609453, -0.0203897320, -0.2696508467, -0.0873401463, -0.0949101001, 0.1349860728, 0.0783669576, 0.1569790840, 0.1530780643, -0.0523142405, 0.0719522908, 0.0603391044, 0.2508472800, 0.1895758808, -0.1123407930, 0.1567005068, 0.1185944080, -0.1901614219, -0.1521273106, -0.1483902186, 0.0069299508, 0.1005419195, -0.0954148173, 0.1633348465, 0.2082722336, -0.1181570292, 0.2214156538, -0.0003018352, 0.2241704315, 0.0731881037, 0.0009757119, 0.0035013233, -0.1287414134, 0.0838747919, -0.0326656923, -0.1124711260, -0.0711589754, 0.0745368004, -0.3333011270, -0.3110065162, -0.3268691897, -0.1838741601, -0.0404193811, -0.1086512655, 0.1889095902, 0.2070014179, 0.0019417977, 0.0063777943, 0.2158484608, -0.1039021686, 0.0553362891, 0.0819943175, -0.2405871302, -0.1528531164, -0.1045374498, 0.2564824522, 0.1073139608, -0.1255622357, 0.2083033174, 0.2320545018, 0.0296124984, -0.2329449952, 0.2253846973, 0.0214080289, 0.1642073542, -0.0667282417, -0.0056335172, -0.1209554300, -0.4092269242, 0.0782649666, 0.0901459306, -0.1738366783, -0.1572913378, 0.1406727582, 0.0518977530, -0.1997095793, 0.0527783968, -0.0489220694, 0.0703645051, -0.3071347475, -0.1525458843, -0.1039780080, -0.1101065502, -0.0860675275, 0.0061012227, 0.0445431210, -0.0610419400, -0.1194110513, -0.0783162564, 0.0053196605, 0.0357907601, -0.0900490284, 0.1702473909, 0.1858567595, 0.0122785736, 0.0847062990, -0.0286899190, -0.2799688280, 0.1824036986, 0.0902393684, -0.0654349402, 0.0917006955, 0.0614790320, -0.1931426227, 0.0956608951, -0.0448109210, -0.1434849501, -0.0530464202, -0.1634080410, -0.0589966662, -0.0192805324, 0.0810771137, -0.0021886325, 0.1553465724, -0.0412439406, -0.2416937053, 0.2051995993, 0.0366066024, 0.0724381730, 0.1074702144, 0.0351291224, 0.0457328260, 0.0286312569, -0.0822629929, 0.0719120726, 0.2718486786, 0.1761186868, 0.2341389656, 0.3744094968, 0.0129339136, -0.0352515355, -0.0051439502, 0.1708375663, -0.0407995507, -0.2928003073, -0.1092036366, 0.0719972402, 0.0830117166, -0.0231634062, -0.0757163763, 0.0949226543, -0.1224023029, 0.0768088326, -0.0847544819, -0.2596296966, -0.0616665669, 0.1517874002, 0.2239741534, 0.2354204357, 0.1349376589, 0.3111764193, 0.3560178280, 0.3301472664, 0.1968498677, 0.1611752510, 0.0966033489, -0.1493023783, 0.0134339528, -0.1250628978, 0.0063565178, -0.3055355549, -0.1718543172, 0.0180625860, -0.0602252111, 0.0196628720, -0.0283610076, 0.1407457143, 0.2103589028, -0.1036970243, 0.0228659417, 0.0436407179, -0.0968374088, 0.0917351767, 0.0489127785, 0.0301418658, 0.1532933563, -0.0324117802, 0.0489256643, -0.1512245238, 0.0251340177, 0.1838500202, 0.1703950465, 0.0828243271, -0.1795412600, 0.1875624955, -0.1179332659, 0.0849271119, 0.3249670267, 0.4243281186, 0.5382908583, 0.0751471445, -0.1036270857, 0.1035276353, 0.2245203704, -0.1363625526, -0.1176123098, -0.2759827077, -0.0861741155, 0.2393515259, 0.1855599433, 0.1429512501, -0.1751397401, 0.1160288081, -0.1440553069, 0.0943801105, -0.4400546253, -0.2380459607, 0.2072833329, -0.1069528088, -0.2865087092, 0.0993009135, -0.3405040801, -0.0823530480, 0.0561629124, -0.0296078008, 0.2740804553, 0.0516023077, -0.1557997763, -0.4067124426, 0.0426443331, -0.1749779582, -0.0726600587, 0.3082765639, -0.3167769313, -0.0895113349, -0.0368542187, 0.1150243878, 0.2417554855, -0.0826685056, -0.0393160284, 0.0904715955, -0.0678540692, 0.0504255965, -0.0497188643, -0.0016447299, -0.1719722301, -0.0096016768, -0.0521800518, 0.0412811078, 0.0521322489, 0.0710967556, -0.2975481749, 0.2863534391, 0.3092199862, 0.1437480450, -0.0450382642, -0.2823032141, 0.1657019556, 0.0177790541, -0.1546621472, 0.1414136142, -0.0756102800, 0.1514634937, 0.0579869561, 0.0826187730, -0.2688213289, 0.0814577639, -0.1830863059, -0.0538125075, -0.1715204418, -0.1778468192, 0.0360764079, -0.0509539917, 0.1123537272, 0.0249157622, 0.1539950967, 0.0999199525, -0.1997595280, -0.0068980879, -0.1728491932, 0.1821285933, 0.1153916046, 0.0660575405, -0.3019405901, -0.0273495447, 0.0324891657, -0.0120122368, 0.0289050080, 0.0244596004, 0.0015503203, -0.0195690766, 0.1183804944, 0.1956037134, -0.1035693288, 0.0718304217, 0.1512006968, -0.2327388972, -0.4357580841, 0.0512165017, 0.0703261867, -0.0656095073, 0.0682692677, -0.0662247986, 0.0331971571, -0.2420637310, 0.0543908775, -0.2103154510, -0.1662003696, 0.1333641410, -0.1076609939, -0.0537138768, 0.0420731157, -0.0774355903, 0.1721826047, -0.1112728566, -0.1979656965, 0.0789831132, 0.0950142592, -0.1284995824, -0.0529274270, -0.0090801036, -0.0937145650, 0.3397035599, 0.0804126412, -0.2494510263, -0.4457973838, 0.1634986550, 0.0569610149, -0.1200703755, 0.1554124206, -0.0518423617, 0.0131714139, -0.2663784027, 0.1726722717, 0.1249540448, -0.0795724690, 0.0453361981, 0.2609134614, -0.1880047917, 0.1679316312, 0.1225421876, 0.1443173438, 0.0804076642, -0.2261884362, -0.0767777711, 0.0520123504, 0.0935842618, 0.1048809364, 0.0821230784, 0.2000943571, -0.0768083706, -0.0795674026, -0.0710299760, 0.0648813769, -0.0538294837, -0.0161174908, -0.0258763395, 0.0672800094, -0.2567022145, -0.0387037210, 0.1974972785, 0.1453908384, -0.0029620314, -0.0813136473, 0.0315553285, 0.0378786922, 0.0618162341, 0.1823025048, -0.0590036064, 0.0111990822, 0.2417976558, -0.1558037251, 0.0125796814, -0.0532122739, 0.0651680902, -0.1762419939, 0.0883934796, -0.0231367294, -0.0617348775, -0.0211407095, -0.0701405853, -0.0773646608, -0.0959345028, -0.0182808544, -0.1654605120, 0.0242895782, 0.2042718530, 0.0408294238, 0.1489709169, -0.1276818067, -0.3392331898, -0.1000080928, -0.1138892621, -0.0431304276, -0.0373554192, 0.1944717765, -0.0718551651, 0.2551525533, -0.0132566933, 0.0051564649, -0.0459391661, 0.1711722910, -0.0364374854, 0.0585421696, 0.0265936553, -0.0195314512, 0.0284191333, 0.1627360433, -0.0032949548, 0.0828241333, -0.0393558852, 0.0515677035, 0.0799558684, 0.1695482284, 0.0455246493, -0.1803175658, 0.1345720887, -0.1167693660, 0.0651660860, -0.2403743416, -0.0042854808, -0.2130341530, 0.2287889719, 0.0383129306, 0.0909097195, 0.4841027260, 0.0071989777, -0.1353338659, 0.2392880619, 0.1570597738, 0.2021629214, 0.0391165167, 0.0791778639, -0.0566675700, 0.1580689996, -0.0279605910, -0.3029048443, -0.0019369188, -0.0870535597, -0.0330040939, -0.0461544059, -0.3430478871, -0.2625271678, -0.0641166121, -0.1910090595, -0.1535505503, 0.1314005852, 0.1420270652, 0.1474170387, 0.2067860663, -0.1088536829, -0.0949047580, 0.0317234993, -0.0642641708, 0.0199893992, 0.1414334029, 0.0657326356, -0.2801528573, -0.0970902890, 0.0832193345, -0.1701184064, 0.2195504010, -0.1464187354, -0.1925017387, 0.1627854854, 0.0559179969, -0.3382511437, -0.0942530185, -0.0938935131, -0.2836594880, 0.1333580166, -0.1612906009, 0.0679161400, 0.2365389019, 0.0310867261, 0.1316245496, 0.1266607642, -0.0106694223, 0.0775106102, 0.2506556213, 0.0443491675, -0.2957173288, 0.1873268187, -0.2019082904, 0.1634259373, 0.0663328245, 0.4504163861, 0.2537429929, 0.0646507740, 0.0071940338, 0.1868133098, 0.2677967846, -0.1378996819, -0.4361068308, 0.0715218857, -0.1584740430, -0.3014284372, 0.3806141913, 0.1231473312, -0.2022027969, 0.3066203594, 0.2324608415, -0.1873822063, 0.3453601599, 0.1977875382, 0.0175294038, 0.0437437780, -0.1065359935, -0.3321587443, -0.0160136372, 0.0887423381, 0.1193966120, -0.0924553201, 0.1623350680, -0.0599414296, 0.0894942731, -0.0360370800, -0.1984186918, 0.3722218573, 0.1621895730, -0.1735088527, 0.1429614574, 0.2208268791, 0.1764610410, 0.0573152490, 0.0398825221, 0.1657915860, 0.0986895189, -0.0389024541, -0.1333205998, -0.0642408133, 0.0974690393, -0.1712850928, 0.0050124228, -0.1142041609, -0.2753701210, 0.1204763949, -0.0645864084, -0.1257739961, 0.0333769247, -0.0495633818, 0.2652256787, -0.1774449050, 0.2662791312, 0.1478687972, -0.0927928537, -0.0280952826, 0.0908343047, -0.0282306299, -0.0638845339, 0.0816934183, -0.0402605124, 0.1280574501, 0.2736192048, 0.0514840409, -0.1561542302, 0.0727162361, 0.3381451964, 0.1283772588, 0.0178067591, -0.0810526013, 0.1283670515, 0.0013352284, 0.1272682399, 0.1140725166, -0.0522111505, -0.1055105105, -0.0733386800, 0.2123866230, 0.1494884938, 0.4180388451, 0.2199814916, 0.0074783093, -0.0464067161, -0.0239099711, 0.0583563782, -0.2316661924, -0.0261053536, 0.1207401752, -0.2488683313, -0.3261291981, -0.0030148793, -0.0351786353, -0.0551061034, 0.0545527823, 0.0505830571, -0.2235743999, -0.1405288875, 0.0903707370, 0.0212860666, -0.1093783230, 0.0037598489, -0.0498748049, -0.0298366807, 0.0671229437, 0.0191695709, 0.1708892584, -0.0083717294, -0.0861656293, 0.0676699281, 0.1412821859, -0.0517377853, 0.0131695103, -0.0509259030, -0.1260152310, -0.0282040238, -0.1937761903, -0.0756673068, -0.0943967327, -0.1726380438, -0.0048505636, -0.0169293005, 0.1006213799, -0.1529505253, 0.0825489536, -0.0464323759, 0.1827177107, -0.0064174491, -0.0566834696, 0.0271216035, 0.1101315245, 0.0275941994, 0.0750609338, -0.0178642198, 0.3109079599, 0.3449198902, 0.0256595444, 0.0404216163, 0.3583446443, -0.0833103135, 0.0389901884, 0.3181325197, -0.0667007044, -0.0648287311, 0.2519871593, -0.1030141860, -0.0812065229, 0.1357197613, -0.0072267223, 0.1505815983, -0.0423877910, 0.4756884873, 0.1433259249, 0.1340774894, 0.4546969533, -0.0203738511, -0.0822208151, -0.0076384875, -0.1915906072, 0.0408459269, -0.1270212978, -0.0921811759, -0.2914746106, 0.0355089307, -0.0935037807, -0.0835725367, 0.0136464396, -0.0913599581, 0.0109994598, 0.1300481260, -0.0756018236, -0.2082566768, -0.3496506214, -0.0163775645, -0.2552919984, -0.3074113429, -0.1065315753, -0.2298350036, -0.1299195290, -0.0312944837, 0.0559017025, 0.1706766784, 0.0258758590, 0.1474148035, 0.0448363237, 0.1337184310, 0.1381553262, 0.2588968277, -0.0806743875, -0.1709724814, -0.0574685708, -0.0411492102, 0.0059745805, -0.1012379974, 0.1990088671, 0.1274313480, 0.0153669752, -0.1057293117, 0.1523210108, -0.1371950805, -0.0370162055, -0.1814367026, -0.0947960541, 0.1922438145, -0.2313296646, -0.0053265691, 0.0560662970, 0.1650127023, 0.0526799299, 0.1455173790, 0.0114197228, -0.1047481820, -0.2582439482, -0.4991233945, 0.1405144036, 0.1004319638, -0.0086621121, 0.1073970869, 0.0132430661, 0.0279075131, -0.0400534905, 0.1765518039, -0.0960886404, 0.1731125563, -0.1223122329, 0.0580038279, -0.1564155370, 0.1550215483, -0.2099254280, -0.1824941039, 0.0105940504, 0.0006706170, 0.3131842017, 0.2033770233, 0.2979341447, -0.3194129169, -0.0093417736, 0.0849409699, -0.1428340971, 0.2481594384, 0.0268468186, 0.0246286597, 0.0597476810, 0.1949612945, 0.1797612607, 0.0470334589, -0.1506148577, -0.0488882326, 0.1463388950, 0.1027481928, 0.0583105721, -0.0108441748, 0.1567398012, -0.0181851052, -0.0780546963, 0.0682268590, -0.2359659076, -0.1676221043, -0.0999889076, 0.1544367224, 0.1111603305, 0.2416594028, -0.0870237499, -0.0742091984, 0.1335931122, -0.0445761234, 0.0792207941, -0.1297447681, -0.1938139051, -0.0695210770, -0.0556377657, -0.0082264170, 0.0850313157, 0.1571748704, 0.0494620018, 0.0151865063, -0.2365091443, 0.0026997821, -0.0630041957, -0.2956356108, 0.1522674859, -0.0168471746, -0.0420989506, 0.0320547223, -0.0928863809, -0.0101834768, 0.0155617725, -0.0306435153, -0.0285730809, 0.0953467563, 0.1375184655, -0.0477340594, -0.1061098650, -0.0701407939, 0.1335821599, 0.1457597762, -0.0876719132, 0.0941476077, -0.1788583547, -0.1804217696, -0.0396150537, -0.0873515233, -0.0186210684, -0.3351470530, 0.0404483527, 0.0850611478, 0.0404426157, 0.3029268980, 0.0481724553, 0.2660022378, -0.0220382418, 0.0397790633, 0.0256076399, 0.0570418090, -0.0729912743, 0.1233891025, 0.2522203028, 0.2349646091, 0.2920879722, 0.3445802927, 0.4303230345, 0.0744186491, 0.0295660160, 0.0730293617, -0.0633033440, -0.0578908920, -0.0041987919, 0.0882691890, -0.0515694134, -0.0671584159, -0.0679855645, 0.1734560132, 0.1625203639, -0.0210340954, 0.0941524878, 0.1196648702, 0.1404680908, 0.2412757874, 0.1937280595, 0.0835859999, -0.0998149514, -0.2273197323, -0.1479476243, -0.0827002525, -0.0460257530, -0.0310158115, 0.0472715572, 0.0964297280, 0.1009899825, -0.0970743895, -0.0441008620, -0.5948944688, -0.2536359727, -0.0577588230, -0.1774531752, -0.0128527321, -0.0645221844, 0.2138149440, 0.1161532253, 0.0901517496, -0.1060441062, 0.0723351538, -0.0424730182, -0.0992693156, -0.0944512337, 0.2280730158, 0.2079907209, -0.2458472848, -0.1865723133, 0.1580547094, 0.1540409327, 0.0016884161, 0.1991390437, -0.0889367312, -0.0863885432, -0.1427306533, -0.0832068846, -0.0944617912, 0.0247423463, 0.1230466962, 0.0336565226, 0.1943192780, 0.0069871619, 0.0297796130, 0.0132276369, -0.0217373334, -0.0628825575, 0.0270039439, 0.1010107100, 0.1208463758, 0.1646156311, 0.2744660974, -0.0009607285, -0.0003401455, -0.1467764825, 0.0940488651, 0.1463305652, 0.1145930290, 0.1112723127, -0.0722783580, 0.1234453395, -0.1409572810, -0.0902564824, 0.0215894599, -0.1191916615, 0.0770547390, -0.0425939746, 0.1431731880, -0.0288073737, 0.1517073065, 0.0640087277, -0.1923032850, 0.0105049675, -0.1198585331, -0.0715776309, 0.0031035747, 0.1181150973, -0.1374381632, 0.0134339249, -0.0766074210, -0.0566505268, -0.1146189794, 0.1418354958, -0.0512563922, -0.1066278219, 0.0511543006, 0.0652443096, 0.0945935026, 0.1009507403, 0.1044357046, 0.0594400689, -0.1712944508, 0.1062876955, -0.0268730633, 0.1112782657, -0.1271698624, 0.0935487747, 0.2128521353, -0.2973606586, 0.0397606790, 0.1353242844, -0.0167072006, 0.0783264786, 0.1427900642, 0.0977862850, 0.1398976296, 0.0926924944, 0.0822787061};
#endif

#endif
